35 24
24 -0.069829 -0.0769912 -0.119942 -0.111842 0.123525 -0.139987 0.0662004 0.0262896 -0.0402386 0.0669391 0.11957 -0.100558 -0.0206543 -0.00160171 -0.168274 -0.123078 0.172122 0.0142088 -0.0654784 -0.0391806 -0.133075 0.123823 0.126866 -0.0133643
34 -0.117483 -0.296973 -0.352027 -0.313541 0.374111 -0.512299 0.180397 0.130391 -0.0367915 0.303489 0.293495 -0.231005 0.0296852 -0.0441938 -0.574018 -0.398243 0.528177 0.00754386 -0.182203 -0.163313 -0.432837 0.414547 0.495946 0.0262226
0 -0.220199 -0.239502 -0.38252 -0.281162 0.351857 -0.395905 0.213998 0.0928449 -0.0683985 0.256946 0.314914 -0.287545 -0.0452722 -0.067423 -0.517837 -0.285164 0.478799 0.0426422 -0.13479 -0.198755 -0.396229 0.315688 0.416482 0.012551
32 -0.132677 -0.192436 -0.303127 -0.188594 0.296034 -0.318138 0.131 0.0870951 -0.0590598 0.149289 0.222802 -0.171901 -0.0460541 -0.0180481 -0.353093 -0.23991 0.327311 -0.00285995 -0.102275 -0.136367 -0.305095 0.273607 0.305304 -0.00372651
5 -0.0760379 -0.0973862 -0.156124 -0.126407 0.151005 -0.169159 0.0935791 0.0440228 -0.0110599 0.0889377 0.113097 -0.0761328 0.00509375 -0.00652082 -0.233253 -0.13906 0.193744 -0.00691165 -0.0727251 -0.0694765 -0.181119 0.145006 0.182838 0.0192783
7 -0.102283 -0.135486 -0.227562 -0.151534 0.205866 -0.243043 0.0888706 0.0770848 -0.0540908 0.139529 0.154583 -0.115047 -0.0124413 -0.00866331 -0.315781 -0.19378 0.290401 0.0211511 -0.0868826 -0.0783694 -0.239337 0.226219 0.237786 0.016542
17 -0.0915939 -0.172576 -0.258534 -0.227808 0.25243 -0.345752 0.14412 0.0909892 -0.0302376 0.206303 0.195113 -0.17004 -0.022724 -0.0159534 -0.395434 -0.25626 0.362015 0.0245514 -0.100948 -0.137466 -0.297124 0.267017 0.329846 0.0025095
15 -0.0435358 -0.0733935 -0.098747 -0.0777186 0.0967225 -0.081461 0.0349176 0.0104752 -0.0255836 0.0419201 0.0835848 -0.0473646 -0.00860989 -0.0246004 -0.132951 -0.0583758 0.12001 0.0155031 -0.0461049 -0.029179 -0.0890422 0.0810768 0.0843613 -0.00300786
4 -0.0881885 -0.14007 -0.199432 -0.161678 0.191744 -0.24464 0.100105 0.0528188 -0.0521004 0.145196 0.148008 -0.131214 -0.00703132 -0.0120076 -0.262943 -0.183975 0.253128 0.0293852 -0.0772114 -0.0845219 -0.223352 0.206133 0.242511 -0.0102817
8 -0.0684594 -0.118121 -0.123889 -0.122406 0.130094 -0.198847 0.0678311 0.0602493 -0.0145492 0.107189 0.110846 -0.0844772 0.0158601 -0.0347506 -0.20244 -0.150541 0.202936 0.0229985 -0.0621583 -0.072622 -0.175508 0.147217 0.155027 0.00345238
13 -0.0527065 -0.111219 -0.131691 -0.120542 0.147393 -0.201229 0.0687997 0.0639387 -0.00901417 0.136892 0.0996871 -0.0948281 0.0121933 -0.0247249 -0.224732 -0.166861 0.235668 0.0295451 -0.0771963 -0.0808224 -0.172501 0.161375 0.206356 0.0136553
25 -0.0680196 -0.0840847 -0.146674 -0.1107 0.136769 -0.136995 0.0602315 0.0452865 -0.0242143 0.0783548 0.108657 -0.0787881 -0.0172453 -0.0296937 -0.168319 -0.105813 0.157502 -0.0127458 -0.0646382 -0.0766107 -0.129883 0.117098 0.162765 -0.00960558
33 -0.211993 -0.217825 -0.371942 -0.245671 0.343792 -0.360133 0.154359 0.086962 -0.110017 0.170557 0.285886 -0.217944 -0.052319 -0.0385646 -0.449667 -0.234982 0.389915 0.0388363 -0.133754 -0.139877 -0.34126 0.300412 0.357092 0.0216551
1 -0.0799223 -0.127797 -0.150899 -0.111951 0.158299 -0.182504 0.0839651 0.0300474 -0.0270806 0.0901803 0.140776 -0.0980043 -0.00597895 -0.0313176 -0.215564 -0.142386 0.178514 -0.00789479 -0.0688618 -0.085333 -0.167631 0.13942 0.201184 -0.00205495
9 -0.0452914 -0.0408599 -0.104688 -0.0770815 0.108683 -0.112231 0.0405103 0.0245777 -0.0444442 0.0515865 0.060133 -0.0545989 -0.0222972 -0.0285646 -0.136624 -0.0675875 0.0902668 -0.0164367 -0.0434931 -0.02653 -0.0968011 0.0906512 0.0909379 0.0168675
28 -0.0726795 -0.0757355 -0.141591 -0.10752 0.145761 -0.171015 0.0898561 0.0195873 -0.0177186 0.0798623 0.115048 -0.0766027 -0.0113127 -0.00145258 -0.165867 -0.126205 0.162119 0.0281357 -0.0522413 -0.0452788 -0.161538 0.144663 0.168144 0.017497
10 -0.0411075 -0.0713911 -0.1153 -0.0821007 0.115658 -0.127968 0.037905 0.0233715 -0.000367767 0.0664185 0.0740329 -0.0609893 -0.00678443 -0.0306542 -0.148562 -0.0843724 0.125493 -0.00796477 -0.0334154 -0.0406931 -0.124178 0.115523 0.111614 -0.0103311
16 -0.0472433 -0.0405588 -0.0653479 -0.0670566 0.0652375 -0.0699054 0.0359571 0.00495577 -0.0197753 0.0367483 0.0807897 -0.0323869 -0.00419433 -0.0255667 -0.109031 -0.0555004 0.0844319 -0.00371463 -0.0453194 -0.0383663 -0.0965669 0.0784101 0.0741369 -0.00985265
3 -0.061435 -0.0941317 -0.176765 -0.110424 0.175691 -0.199075 0.0977704 0.0460517 -0.0396524 0.0903388 0.110702 -0.105958 -0.0223002 -0.033084 -0.210879 -0.116834 0.208832 -0.00662836 -0.0569694 -0.0597753 -0.182723 0.148309 0.188723 0.0217798
6 -0.0738095 -0.0959522 -0.137456 -0.132726 0.160071 -0.189496 0.0826703 0.0307542 -0.0159847 0.110382 0.135058 -0.104833 -0.019846 0.00338168 -0.196946 -0.144495 0.188789 0.0226116 -0.0567513 -0.0889555 -0.182917 0.14531 0.15885 0.023612
11 -0.0363165 -0.12026 -0.14442 -0.133831 0.142 -0.203483 0.0621722 0.0394772 -0.0109891 0.107176 0.104109 -0.0753463 0.0225422 -0.00857733 -0.229015 -0.143265 0.196297 -0.000842351 -0.0558504 -0.0835339 -0.168744 0.130974 0.17963 0.00898832
2 -0.0639573 -0.0826406 -0.137947 -0.100631 0.133456 -0.168754 0.0689418 0.0553804 -0.0391106 0.102024 0.0840576 -0.0645707 -0.0238542 -0.012903 -0.15906 -0.101398 0.162781 0.0142539 -0.0532107 -0.0530663 -0.143104 0.119052 0.164374 -0.00112926
20 -0.0551917 -0.0638367 -0.0666193 -0.0665124 0.0910912 -0.112848 0.0576889 0.0116377 -0.0333577 0.0745181 0.0508991 -0.0366825 0.00495967 -0.00696011 -0.0965441 -0.082938 0.0944712 -0.00806015 -0.0205898 -0.0240534 -0.0761198 0.0790996 0.105033 -0.00305817
31 -0.0781942 -0.107769 -0.14235 -0.103787 0.141392 -0.159645 0.0570818 0.0270261 -0.0526674 0.090401 0.13476 -0.0891935 -0.002699 -0.00389531 -0.200844 -0.108624 0.167606 -0.00597095 -0.0726004 -0.0541167 -0.147568 0.11641 0.16715 0.00704848
19 -0.0337335 -0.0723688 -0.0869934 -0.0561648 0.0684879 -0.113776 0.0505034 0.0222871 -0.0292009 0.0659009 0.0717039 -0.0554499 -0.0116919 -0.0261333 -0.106477 -0.0646038 0.0997578 0.0251 -0.0231444 -0.0216612 -0.102313 0.0611219 0.0999081 0.00936439
12 -0.0343949 -0.0909302 -0.104493 -0.085778 0.0941026 -0.136607 0.0392524 0.027548 0.0010598 0.0949301 0.0931156 -0.0501586 0.00845438 0.00305398 -0.187232 -0.104212 0.169644 0.0286709 -0.0429137 -0.0419439 -0.125794 0.114362 0.155693 0.0198283
23 -0.0425558 -0.0686411 -0.10163 -0.0561949 0.0794864 -0.117844 0.0598528 0.0203813 -0.0415121 0.0560549 0.0583122 -0.0716628 -0.0129193 0.00813336 -0.134867 -0.0821104 0.123318 0.0100046 -0.0281764 -0.0509213 -0.100977 0.0806204 0.113904 -0.00981677
29 -0.0390345 -0.0757677 -0.0998022 -0.096379 0.103938 -0.119728 0.0428077 0.0459033 -0.0481618 0.0519225 0.0774571 -0.0629888 0.00169289 -0.0068574 -0.15562 -0.0722816 0.131114 -0.00185981 -0.0620315 -0.0700647 -0.105822 0.0984484 0.133192 0.00381422
26 -0.0862575 -0.120661 -0.18008 -0.134613 0.180845 -0.237886 0.0948752 0.0703221 -0.0457373 0.12862 0.162924 -0.128437 -0.000292853 -0.0414521 -0.263791 -0.140733 0.218455 -3.28338e-05 -0.0973599 -0.105995 -0.193347 0.184709 0.241375 0.0221256
27 -0.0500789 -0.0649298 -0.10256 -0.0893834 0.109034 -0.130208 0.0312386 0.0347016 -0.0374853 0.0772784 0.0902341 -0.0742142 0.0058338 -0.00870678 -0.137412 -0.0947978 0.135233 0.0207162 -0.0605952 -0.0441045 -0.112503 0.0849982 0.130228 0.0158713
18 -0.0305397 -0.082194 -0.127972 -0.0983904 0.119786 -0.181021 0.0655586 0.0628516 -0.0063195 0.102166 0.0824195 -0.0933198 0.00218166 -0.0281452 -0.177411 -0.116374 0.162335 0.0128734 -0.0456301 -0.0461972 -0.155381 0.117375 0.143001 0.0191534
22 -0.027237 -0.0811591 -0.112898 -0.0813776 0.0839395 -0.160146 0.065703 0.0573058 0.00187593 0.0843925 0.0694639 -0.0647579 -0.0168186 -0.0177605 -0.166397 -0.113908 0.155863 0.0188692 -0.0472006 -0.0580931 -0.131761 0.118606 0.139756 -0.0066966
14 -0.0893965 -0.105644 -0.170121 -0.129625 0.140656 -0.177833 0.0958059 0.0451815 -0.0263425 0.107438 0.13221 -0.082918 0.00106448 -0.0188477 -0.208506 -0.128806 0.179138 0.0183331 -0.0492385 -0.0713514 -0.147278 0.155001 0.156659 -0.0120199
21 -0.026717 -0.0614619 -0.0965797 -0.0618518 0.0934916 -0.109305 0.0340296 0.0132895 -0.0297406 0.0407171 0.0858308 -0.0574794 -0.00274287 -0.0216326 -0.127274 -0.0702881 0.105153 0.00424616 -0.0164507 -0.0355642 -0.103323 0.082909 0.112783 0.0195881
30 -0.0855872 -0.12885 -0.152748 -0.138199 0.179436 -0.171357 0.0818443 0.050935 -0.0558488 0.0818073 0.126213 -0.0956915 -0.0121148 -0.00109016 -0.219501 -0.141369 0.193377 0.0145526 -0.0857041 -0.087745 -0.166585 0.16081 0.167867 0.000608995
